60 50
gown 1.723335 2.210007 -1.804499 -1.008585 -0.514017 0.36525 -5.1184 -1.838154 -0.265895 -0.891753 -0.816877 2.367028 -1.651158 1.139793 -2.979839 -0.27663 -1.47388 -1.117354 0.047222 0.465641 -0.5867 -0.765238 -0.205462 -3.150199 -0.459132 0.971588 -1.323682 -2.383641 0.825035 -2.523681 0.019709 0.355889 -2.140567 0.370557 -1.79743 -0.803097 0.007892 -0.474918 0.511847 1.582425 0.116582 -0.336249 -5.262437 0.106158 0.482652 -3.162875 1.909202 -1.387594 0.70809 2.205678
attorney -1.635066 -1.48054 2.130075 0.899815 -0.295144 -0.135239 4.009366 -5.071361 0.707647 0.393898 0.856039 1.853709 0.46205 3.238607 0.747988 0.808293 -1.111481 -1.217586 1.809082 -1.43868 -1.062698 0.343165 1.22393 1.847815 -0.273827 -2.061391 -0.653355 -3.095852 0.576396 -1.72736 0.239075 -1.592153 -0.818883 0.759241 1.304114 -0.420675 1.094806 0.951442 -2.829207 -0.791365 -1.965134 -1.593463 0.776554 3.292305 5.022872 1.633485 2.081874 -1.485081 0.265706 3.388468
helper 1.119797 0.861425 2.715882 -0.647407 0.261307 -0.935837 -0.453277 0.277666 -0.461895 -1.099351 -0.202381 -2.461499 -0.669093 -0.524042 0.810155 -1.291038 0.334976 -0.13065 -0.074573 0.398293 0.54748 0.943344 -1.978197 -2.246365 -0.971871 -0.28428 1.026071 0.089688 0.048672 -1.460769 -0.854271 -0.699766 -0.644248 -0.040599 0.576323 0.830712 0.994098 -0.684093 -0.820138 0.008232 0.649469 0.201794 -0.634356 -0.435767 1.120007 1.822731 -1.317583 -1.226963 -2.454882 -0.03514
twelve -0.539176 1.316902 -2.765084 -1.54141 -1.194582 -1.100425 -0.344494 0.006003 -1.141518 0.532896 -1.961884 0.156489 -2.437142 1.170695 -0.206634 -1.322512 0.900306 -1.936094 1.147561 1.082702 -0.499099 0.052423 0.548809 -1.279972 -1.610762 0.679955 -0.117915 -0.037237 -0.990035 -0.681638 1.981618 -1.449441 0.103315 -0.510034 0.114205 0.42794 -0.134444 1.737461 -1.124614 -1.577765 1.147712 -1.212958 0.360083 -0.803084 1.150692 -1.002926 -0.278719 -0.328056 0.258762 -2.156585
prominence 0.726367 -0.704714 -0.921741 -0.023972 1.379172 1.584499 0.57093 -0.613886 0.816591 -1.322819 -0.128415 0.791964 -0.732394 0.59508 1.006425 0.800781 2.539379 0.730858 -0.387703 -0.372218 -0.554025 -1.096598 1.751991 0.776034 0.877511 0.238008 -0.812166 0.880786 0.46638 -0.088983 0.874273 1.271742 -1.41528 0.983791 1.147275 -0.180154 -0.09769 -2.534587 1.003322 -1.050631 0.700913 -0.818306 -0.649591 -1.668831 0.354974 0.799523 -1.183825 0.55516 1.43275 0.940882
peerage 0.577174 0.458445 -0.077159 -0.540742 -2.469379 0.385253 2.591101 -0.759424 2.310015 0.472807 -0.932832 2.829057 0.145848 0.360865 -2.085186 1.35519 3.281516 -0.199323 -0.1734 -1.980131 -0.369424 0.428615 1.083043 -1.199009 1.865574 -1.239531 -0.908303 -0.92139 0.800594 -2.398449 0.19284 -1.804037 -0.092346 -0.968479 -2.963804 -0.437476 1.350012 -0.776124 -1.197042 -3.022749 1.40533 -4.397344 -2.041489 1.976879 0.706021 1.389513 -1.857072 -0.550884 -1.86059 0.186892
duck 3.075386 2.726543 -0.24602 -1.548708 -1.200111 -1.719882 -2.30382 -0.738098 0.608721 -0.715223 0.123567 -0.8838 1.161686 -1.11514 2.071675 -1.954448 -2.179365 0.431428 -1.501786 -0.234209 2.239504 -1.234096 -0.511519 0.103218 0.629181 1.084521 1.86745 2.323912 0.305364 0.469135 1.616624 0.039658 -2.902018 1.112699 0.540185 1.669208 0.559893 1.112513 -1.92801 1.931773 -0.518464 -1.627343 0.654665 0.718864 -0.945806 -1.122351 -0.850041 0.437912 -0.501638 0.927108
immigrant 2.333404 0.308066 -0.895883 -0.344144 -0.615105 1.349925 1.75448 2.084012 3.950223 -0.924136 1.821024 -2.251093 1.653994 2.586812 1.294739 -2.763271 1.828933 0.390385 2.309295 0.56755 0.103594 -0.090109 0.06988 0.409364 0.163947 2.095303 -3.268621 0.054787 -0.110452 -0.835057 -2.78924 -1.326065 -1.290876 1.706907 1.838879 1.61453 1.986337 0.340661 2.335305 -2.379713 -3.226686 1.680344 -0.0344 -0.675638 -1.528729 2.571899 -2.024746 -1.378704 1.039074 0.432508
delegation -1.596388 -0.72565 -0.12309 1.837826 0.549529 -1.25226 0.724925 -1.451121 1.130679 -2.492833 1.470618 -0.487115 -0.565599 1.784246 -1.692229 2.481238 -0.303191 1.02643 0.330443 1.102387 0.331996 0.841896 1.105025 -1.700093 -0.363881 1.484981 -3.362627 0.036648 1.284477 -1.437215 -1.027579 -2.524098 -1.580332 -2.139867 0.224026 4.347348 -0.671474 1.468506 0.656069 1.473345 -0.143235 -1.922204 -0.355462 1.347347 0.928702 0.263683 1.111108 0.585812 -0.149651 -0.142293
culture 2.227386 -1.194341 0.828812 1.858975 -2.224314 1.987046 -1.015929 3.446137 2.563257 -1.632619 1.553793 0.305521 -0.21907 -3.16059 0.005113 -0.20154 0.3634 0.938827 1.018473 -1.651681 -1.193556 0.475794 -0.119606 1.148749 1.53608 1.083254 -1.837694 2.769228 1.203055 0.070282 -2.273315 0.222219 -2.031649 -0.810064 0.859827 -0.790369 -2.224469 -3.851412 5.15526 -0.659744 -0.915323 3.403599 -0.388898 -0.518245 0.747353 1.069571 -2.773785 1.043764 3.522545 0.519485
daylight -0.622457 -1.169975 0.075924 -1.062476 0.606656 0.184365 -2.753542 0.316171 -2.256541 4.325536 1.007721 -0.33224 -1.303481 0.742298 -1.920429 0.661379 1.253894 -0.143037 2.241429 -2.132991 0.994175 0.752663 -0.93091 -0.629393 -1.844183 -0.288446 3.445845 0.803461 -1.747474 -0.63476 0.939905 0.654666 0.41149 0.598871 0.150639 0.740451 1.635678 1.779857 2.0107 2.93839 -1.688562 1.473427 -0.245524 -0.542457 -2.081729 -2.286299 2.707768 -0.401126 -0.865984 -1.79144
hormone -2.692791 2.391972 2.95705 -1.583826 -0.712253 1.872473 -1.031796 -0.721289 -3.697554 0.556857 3.215135 -3.676171 0.063044 0.313771 0.725345 -1.174624 3.175848 2.442975 -5.210112 -1.240113 1.353272 2.539777 -0.514067 1.078506 1.7243 -2.494462 -1.936037 -0.784812 -1.924004 -0.98422 -0.547282 -0.548478 -1.243072 1.494644 -0.474791 -2.947753 -0.695386 -3.82298 2.396542 2.794572 1.267718 3.394698 -0.749284 1.789246 1.807206 0.750187 -1.304008 1.670299 -4.824152 1.249135
illumination 0.562207 -0.052171 -0.078465 0.083163 -1.75179 1.80414 -1.704486 0.805126 -1.680714 1.661094 -0.796699 0.919469 -1.847054 -0.618982 -1.365541 0.160864 1.412922 0.896529 2.643324 -2.327766 -0.119485 0.24279 -1.366903 -0.229309 -1.052497 0.748644 1.849409 -1.024372 1.332632 0.899217 -0.379294 2.354258 3.257857 -1.434889 -0.941638 -0.956014 -0.163411 -0.56927 0.696044 2.516021 0.720615 2.066846 -2.88942 -0.121908 -2.640069 -0.939304 1.712617 -1.432195 0.057616 -2.230675
respect 0.969807 -3.189723 1.20928 -0.407198 -1.380084 -0.435391 0.830522 -0.314035 1.078529 0.171431 -0.457732 1.151168 1.098996 0.319755 -0.540716 0.640336 -0.246228 0.623446 1.449883 -2.395342 -0.315586 1.939606 -0.601572 -2.171071 0.40061 -0.267493 -2.123647 0.819792 1.119325 -0.460481 -1.7212 -0.092495 0.125584 -1.571658 -1.227657 0.554017 0.861472 -0.573421 1.249468 0.131591 2.564582 1.004529 -0.768382 0.567197 0.865946 1.626676 -0.35797 1.655268 -0.305769 1.339855
cactus 2.68107 1.269757 1.971044 -0.403822 -2.241792 0.520028 -0.69085 -0.278146 0.036985 0.655581 -0.236438 0.645916 0.181784 -1.484099 -0.270745 0.6513 -0.541115 1.061678 -1.993457 -2.732251 0.899502 -0.325928 -1.058606 1.486508 -0.592035 0.402074 -0.450873 1.080684 -1.207688 -2.696792 2.406226 2.087595 -2.083364 0.849902 0.978019 0.814403 -2.29744 0.076645 -1.078245 -0.67856 -0.726523 0.726373 -0.078459 2.970443 -2.862709 -3.478122 -0.520229 -0.136354 -0.166473 -1.175866
species 2.9753 0.086282 0.505381 -1.538803 -1.650856 -0.64852 -1.502948 0.997232 0.485532 0.386631 2.084505 -1.410025 1.279578 -1.966509 1.153989 -3.531345 -0.024766 3.528925 -2.202893 -5.349906 2.641637 1.279253 0.230269 0.132751 1.542546 -2.006202 0.037315 1.000337 -2.189349 -2.100029 2.606763 2.760959 -3.530916 2.440126 0.437578 2.517345 -1.303239 -0.198006 0.195482 -0.621832 0.879704 -1.190599 1.413676 5.341603 -1.530086 -1.792939 -1.188568 -0.851721 -1.47738 -1.763181
endemic 2.924594 1.471743 -0.224436 0.979225 -1.21721 -0.189649 -1.053695 0.547585 -0.367674 -0.753839 1.723602 -0.42133 0.291627 -0.679744 2.1778 -0.973984 -0.438118 2.159415 -1.610071 -2.835269 -0.007348 0.793164 1.093891 0.09276 1.205268 -2.099199 0.823216 1.24381 -1.339781 -1.832965 2.177653 0.759588 -1.60405 3.39679 -0.034881 1.743987 -0.493122 0.52678 -0.844855 -2.521611 -0.5256 0.163063 1.298595 3.031292 -2.791238 -1.697779 -0.807668 -0.35883 -0.177548 -1.809097
announcement -3.774299 -1.796033 -0.539072 -0.690973 1.813463 -2.11302 1.441352 -0.217569 -1.111177 0.259721 1.128361 -0.327724 0.941394 0.77645 -1.065554 1.560573 -1.616971 -0.618802 -0.578109 1.607385 -0.819372 -0.334955 -0.058883 0.253823 1.550725 1.192449 -0.802244 -1.021884 2.135548 0.515296 0.181152 -0.237688 -1.975631 -2.043674 1.230697 -0.508291 1.175711 0.371853 0.486088 3.468914 0.031063 -2.360845 0.139905 -0.888705 0.450719 0.605193 1.851826 -1.745854 -0.294371 -1.293704
anticipation -2.426427 -1.433766 -0.21028 -0.480154 1.452061 0.076748 -0.046371 0.803512 -0.155008 0.462751 1.148604 -0.285185 0.702444 -0.076352 -0.560013 1.519894 -0.351972 -0.07703 -0.605781 0.128669 -0.025603 0.166978 -0.691458 -0.414889 0.490014 0.67344 0.450816 0.545162 0.415735 0.704978 0.101802 -0.161189 0.290845 -0.914534 0.347766 -0.214739 0.904288 0.281556 0.790163 1.902754 -0.600969 -0.817998 0.063267 -0.879076 -0.009834 -0.246358 -0.00835 0.806777 -0.423788 -0.152216
cycling -1.366834 -0.434783 -0.577494 2.513303 -1.689821 -3.914117 -0.398024 1.629919 -2.127068 0.6484 0.136333 3.550673 -0.43132 0.286341 0.686994 -2.661023 0.68845 -1.006072 -3.834845 0.793037 1.744091 0.971362 5.663224 0.815383 0.401507 1.348089 -0.987611 -0.057483 2.250717 0.533727 1.720702 0.392613 1.200444 1.055312 -0.727954 0.784385 0.385697 -1.736851 0.688278 -0.709441 -2.031766 1.06953 -0.431037 -0.61069 -1.257708 1.680783 1.810906 -0.216341 -2.670154 1.200145
darkness 0.783915 -1.208389 1.15048 -1.19863 0.233819 -0.190709 -1.016968 -0.34357 -3.251156 3.109971 0.404618 1.810175 -0.921039 -3.028833 -2.826052 -0.038964 1.017371 -0.549381 1.128317 -3.273452 -0.562867 -0.857659 -2.528716 -2.547219 -0.462081 1.015104 1.704274 1.896772 -0.686102 1.800053 -0.074869 -0.737572 1.192857 1.017884 -0.267951 -0.670068 0.954898 0.464252 -0.904708 0.580369 -1.069677 -0.046517 -1.622034 -2.022247 -2.561991 -2.35132 -0.078829 0.51328 1.495654 -0.897882
reform -2.213508 -1.518992 -2.087265 0.53471 -2.188118 5.175107 2.565021 -1.964559 3.178288 -0.825296 3.63735 -2.224207 0.295162 1.588786 -0.642309 3.373978 1.805647 1.108743 1.727333 -0.413221 1.447819 1.031641 1.276564 -0.018534 2.608957 0.854084 -2.333191 2.779192 0.020428 -0.714887 -0.410499 -0.022413 -0.12167 -0.143264 -2.937516 1.524341 2.972169 -0.299638 -1.549836 1.174548 -0.064885 -0.113448 0.916633 -1.147218 1.418847 3.977964 -0.539223 -0.275342 -1.052003 -1.122988
father 1.301662 -0.813287 0.045002 -0.749342 -0.396852 -0.495511 1.400959 -0.284485 0.898905 -1.307307 1.635616 1.913387 -1.125067 1.782381 0.613876 -1.290223 1.425817 -2.919601 0.320101 -0.181556 -0.07054 -0.175864 -4.667184 -1.402134 -1.36018 0.228232 0.884154 -2.382039 1.979858 -0.645764 0.456489 -2.172065 -1.095013 0.780443 -0.764202 -1.98742 1.941171 0.566142 -1.315474 -2.043836 -2.642302 -2.129211 -2.11379 0.600274 0.965989 3.010135 -1.26186 0.68735 1.158978 2.08674
feature -0.276932 1.11973 1.202053 0.416682 -0.7701 0.887031 -1.102765 -0.459894 -1.80813 -0.979763 -2.707378 1.357338 0.501123 -1.785818 1.21595 0.176325 -2.145242 1.46962 -1.156259 -1.552918 0.61431 -0.678428 0.384905 1.248999 1.725333 -0.205686 3.067019 -0.885276 -2.098963 -0.068266 -2.162498 0.913633 0.12716 -1.556717 0.203589 -1.241806 -0.372572 -1.664084 1.381605 1.070213 2.428176 0.850485 0.336021 -1.093952 -1.460403 0.316498 0.107622 -1.550586 0.504221 -1.436649
mix 1.180683 1.031927 -1.224452 0.55986 -0.338472 0.406836 -1.290058 0.202707 -1.544683 -0.210532 -1.395663 1.449282 1.109847 -0.425244 0.0909 -0.557073 -0.202909 2.016281 -0.888765 1.118376 -1.250589 -0.974015 -1.700594 0.266282 -0.144349 -1.029486 -1.200448 1.749109 -0.323297 -0.947241 -1.357005 0.3584 0.356453 0.005979 0.077647 -2.363442 -1.659463 -0.377981 -0.97205 3.056734 -0.453196 1.801684 3.030526 -1.605754 -2.703064 -0.703367 0.453186 -0.871567 0.80419 1.567816
lamp 0.970446 0.991802 2.502671 -1.433032 1.30572 2.912699 -2.462499 -1.589455 -3.097454 1.355276 -1.499324 0.23971 -0.116834 0.226288 -2.117807 -0.057504 1.256714 -0.381703 3.104735 0.275734 0.604158 1.04249 -1.071856 1.866929 -0.777654 1.976014 -0.935277 -4.265296 1.305686 1.107647 0.727531 2.933426 2.184834 -0.158677 -3.120028 -0.376783 0.357951 -1.307859 -1.180276 0.634888 -0.836336 1.54208 -3.591264 1.246637 -3.868209 -3.83514 2.403861 -1.627089 -0.731827 -2.023979
contestant -0.137325 0.365093 -1.573389 -3.693585 -0.221932 -3.110071 -0.123785 -0.199276 -2.010543 0.094675 -2.489969 0.91934 -1.912706 -0.291118 1.99666 -0.409206 -3.418533 -1.236807 -0.582592 1.145398 1.691381 -0.090975 1.652578 -3.957494 -0.815112 2.747261 0.655297 -0.661554 1.602009 -1.12806 -2.197469 -0.962932 -0.498281 3.367584 0.592872 -0.277131 -1.090318 -0.578214 -0.660547 4.176537 3.148116 -1.794112 1.31241 0.974747 1.422595 -0.862638 4.749022 -0.951244 1.76394 0.773467
rider -0.48892 0.456103 0.294855 0.455443 0.390538 -3.762195 -1.909244 -0.004963 -1.54741 0.523141 -2.256802 3.882527 -0.190291 1.366513 -0.572675 -2.70083 2.432722 -1.896142 -3.105139 -0.277852 4.177768 0.326037 4.119118 -1.185713 -1.342212 1.955396 -0.402649 -1.033548 0.58481 0.450242 2.029434 0.659169 1.325729 0.810217 -1.156425 4.605239 1.296966 -0.394631 0.046804 1.059158 -0.259968 0.860917 -0.051951 -2.273183 0.037955 1.00674 3.970398 1.254686 -1.156081 0.507152
hegemony -0.047078 -1.312803 0.307534 -0.374627 0.752849 2.021852 0.351921 -0.222368 2.640171 -1.033374 2.176497 0.854945 -0.356984 -0.186266 -0.687816 3.642075 3.128937 1.644038 -0.230707 -0.388373 0.442211 -0.135667 1.036607 -2.106143 0.873851 -0.17974 -1.541728 2.640904 0.947496 1.91275 -0.215438 -1.287003 0.261867 1.151952 0.23703 2.240095 -1.561466 -1.935701 1.526969 -0.750754 -0.811569 -0.845438 0.82185 -0.500463 0.26245 1.425588 -1.580227 2.074833 2.870841 -0.323741
teen -0.214701 -0.901168 -1.828078 -0.778361 -0.811199 -0.678069 -0.097395 -0.494108 -1.363704 0.448789 -1.036923 -0.168962 -1.102307 -0.300805 1.750536 -2.038391 0.215078 -1.247203 -0.593259 -0.288498 -0.833574 -1.382064 -1.172853 -1.704218 -0.263762 1.238459 0.228738 -0.589314 -0.360942 -0.575378 -0.26623 -1.13853 -3.0796 1.14841 0.157565 -3.209209 0.868829 -1.056473 0.286164 -0.706955 -0.59745 1.104469 0.140948 -0.506806 1.205239 1.029029 0.591068 -1.282596 0.029845 2.133943
warrior 3.817956 -0.580621 1.957807 -0.845727 1.823843 -0.508918 -1.268787 -0.889874 0.989167 -0.814127 -0.654706 0.867261 -3.735405 -2.442607 -1.966004 -0.9081 1.061796 -2.596956 -0.474786 -3.032801 0.172175 -0.282003 -0.546898 -2.594444 0.347313 0.00309 1.065379 1.380362 1.247989 0.789952 -0.040856 -3.199506 -0.816178 -0.009792 -0.875353 2.651627 -1.624552 0.832546 -0.135789 -2.646614 -0.704879 0.625436 -0.605964 -2.877956 0.757723 2.620661 -2.876991 1.995429 0.898234 0.632359
play -0.71666 0.398832 -0.851007 -0.965304 -0.137387 -1.363889 0.737976 -1.698396 2.079289 0.379223 -2.020253 1.146683 -2.649335 -0.999755 3.857801 -1.767655 1.566905 -1.417017 -1.218416 -1.518178 -0.55033 -1.746535 0.988375 -2.012401 1.464474 0.208997 1.590837 0.413367 1.623766 -0.444359 -2.154264 0.839453 1.451435 -0.763436 1.380674 -3.627754 0.733139 -1.122178 -0.820053 3.761098 -0.039549 -0.689306 -1.436197 -2.666137 0.755656 -1.107037 -0.090656 1.17074 1.265788 1.397114
ball 3.020338 1.412001 -0.50907 -1.712277 0.509146 -0.568611 -2.328658 -3.907206 2.930346 0.394649 -3.597397 2.128854 1.770118 -0.850989 2.233016 -0.562961 -0.194037 -1.81063 -0.842312 -1.115514 3.052941 -3.514564 0.890352 -1.992173 -1.856893 -1.298081 0.464838 -2.676512 3.947212 -0.128445 1.378426 -0.631882 3.461257 -1.341859 0.826631 1.649933 2.444046 0.60314 -1.483236 3.018029 -0.417181 4.029717 -1.33291 0.312138 -0.444615 -5.153664 -0.238883 3.548481 -0.708891 0.393924
appointment -2.536119 -1.297154 -1.034219 1.095142 1.427076 0.069436 3.439213 -1.273407 1.061202 -1.190962 1.52168 0.717781 -2.425879 1.697275 -1.530408 2.966215 1.136579 0.162921 1.13276 -0.377088 -0.433238 0.690566 -0.602648 0.840856 -0.299193 0.23214 -1.255906 -2.365087 1.066924 -2.556177 0.567255 -0.977756 -0.337791 -1.497665 -2.624991 1.293542 2.221708 -0.08031 -1.059235 1.468048 1.233987 -2.873502 -0.286841 2.115364 3.124325 0.062208 0.425729 0.296193 -0.854243 1.350179
farm 0.746715 1.149733 1.034949 1.445931 -1.145746 2.548072 1.128805 0.809305 1.992345 0.706031 -0.284634 -1.274204 0.801892 1.583779 3.10427 -2.426107 -0.248384 -3.084359 1.638288 1.029094 3.019381 1.420471 -2.384251 2.74194 -1.710084 0.824831 1.213395 1.462233 0.490213 -3.321878 0.480161 0.66903 -1.500529 3.195169 -0.023833 0.49695 0.368822 2.219492 -1.170859 -0.167482 -4.436112 0.252421 2.156505 0.024882 -2.498147 1.26321 -1.931695 0.93403 -1.481425 0.163406
cannon 1.507988 0.025888 0.53369 -1.075781 4.064403 3.082863 -3.570037 -3.393286 0.221108 0.358249 -1.277244 -0.337109 -1.572809 -1.308946 -1.823847 -0.545097 1.639411 -0.483279 0.108041 -1.068194 1.583207 -0.613467 1.420893 -0.267608 -2.084891 0.419982 2.056995 -2.300935 -2.199134 0.975083 2.459525 -1.135298 1.47858 -2.525846 0.12663 0.32667 -0.81535 5.240553 -3.259387 0.984105 -0.739987 2.659623 -0.06452 -0.147357 -2.483814 0.208125 -0.310933 2.08539 0.864843 -1.885982
price -2.292639 -0.460609 0.398119 -5.099763 -1.622345 1.639713 -1.985328 -0.115153 2.513445 2.974925 -2.397627 -2.563591 2.646405 1.735967 -1.360564 3.297641 1.117652 0.584277 2.179864 3.245965 3.765909 2.731957 -0.112814 3.738688 -0.59304 -0.891387 -2.183459 -0.472459 0.706587 2.011663 -1.330089 0.820229 0.510316 2.429724 1.716022 0.062508 0.890395 -1.229811 0.993904 2.254361 0.116002 -1.945864 3.86448 1.129999 -2.628853 2.030443 1.241361 -0.445373 -2.635397 1.123662
instinct 0.803982 -2.575142 1.934191 -1.109198 -1.351302 -1.315737 -0.081618 -0.953432 -1.085468 -0.167342 1.179482 0.03747 -0.112469 -1.288897 0.39297 -2.433419 0.305426 0.706943 -0.849342 -1.899261 0.847598 0.343241 -1.87249 -2.144592 -0.640679 0.242375 1.802653 1.049722 -0.772047 0.511628 -1.269902 -0.673388 0.076641 0.181938 0.290055 -0.791703 0.625869 -2.112345 -0.525128 1.39795 0.535482 0.549327 1.787126 -0.19742 1.455979 1.844919 -0.881573 3.195562 0.453259 2.463376
precision 1.585861 -1.149975 0.072059 0.039901 0.590596 0.881027 -2.321572 -0.031728 -0.520796 1.549762 -0.263128 1.043958 0.432285 0.21046 -0.392514 0.448573 0.858186 1.199378 1.581002 -0.5579 0.933926 0.61708 0.300696 -0.533781 -1.716314 -2.216264 1.861543 -3.046901 0.826995 -0.940149 -0.23849 3.620582 2.713422 -2.388664 -0.496456 0.311397 0.454076 -0.438563 0.813603 1.582127 3.158376 3.061767 2.743505 -0.659214 -1.358796 0.428785 1.106799 2.356283 0.969234 -1.490722
overall 0.118147 0.534516 -2.279827 -0.780586 1.320333 -0.964982 -0.34222 -0.87766 0.226618 1.612431 -2.695863 2.312306 -2.410538 -0.072531 -0.028799 -2.05773 -0.335925 1.151758 -1.595574 1.63925 1.681691 -0.360795 3.196224 -1.424023 -1.453115 0.675886 -1.287061 -0.069244 -0.427797 0.545764 1.370441 -0.1767 0.218402 1.824064 0.438051 -0.076264 0.757614 -2.546489 -2.123481 1.138234 0.933251 -0.467641 0.018506 0.411445 0.745249 -0.673578 1.575028 0.941022 -1.336692 -2.298946
beam 1.008525 -0.713476 0.122693 -0.054559 2.194212 2.859932 -1.258341 -2.888857 -3.922996 -0.303008 -3.335342 -0.76495 0.271538 -0.247614 -0.602785 -0.274968 -1.249003 0.973696 0.419383 -1.982951 1.810684 0.965111 1.04337 -3.11661 -1.055657 -0.825184 1.48414 -3.321899 0.682349 3.200846 3.008421 1.535083 3.662733 -3.4315 -2.005037 0.062707 0.249638 0.16784 -0.746421 0.271666 2.501631 2.49287 -0.813242 0.944785 -4.341348 -3.736464 1.106634 1.21826 -1.230588 -2.185276
chance -0.074069 -1.499294 -0.509518 -0.675301 0.923775 -2.117757 1.26426 0.255421 0.207091 1.918252 -0.658361 -0.166169 -0.051151 -0.197449 0.249673 -0.183169 0.216383 -1.034878 -0.705292 -0.277694 1.640892 -0.68443 -0.760806 -2.594963 -0.09239 1.409686 0.972931 -1.053274 0.72897 0.847716 -0.239483 -1.931952 0.642648 1.875405 0.891435 -0.056736 1.502531 -0.890505 0.002192 2.122682 0.887663 0.152642 0.500837 0.999944 1.11256 0.958811 0.714512 2.362441 -0.748699 0.265361
hostility -0.968369 -1.779869 0.461177 -0.748873 2.378478 0.450903 0.897001 -0.235467 3.143917 0.968271 3.75707 -0.933549 -0.398768 2.913431 -1.305441 2.08882 1.493021 0.705885 -0.425147 -2.108435 -0.716856 -0.144456 0.080132 -2.527476 0.393691 2.000492 -1.226845 1.180568 -0.117222 1.450466 -0.30259 -2.169312 -1.183288 -0.777453 -1.162804 0.89716 -0.122629 1.505785 1.515155 -0.089567 -0.908795 0.097436 0.392112 -0.391259 -0.272031 0.507932 -0.323572 1.120745 1.209192 -0.15812
foot 2.546645 0.383048 1.347825 0.340714 -1.703577 -0.544213 -3.579041 -1.826557 -2.34354 0.121656 -4.148643 0.490706 1.873489 2.141286 0.34991 0.225385 1.726863 -0.847219 -2.538019 -0.979943 0.028171 0.391277 2.050792 0.242952 -1.733915 -0.174574 2.101162 -1.462121 -1.978294 -0.735479 2.386357 -1.183295 0.05135 0.630526 -1.025702 3.293534 1.076125 2.386985 -1.146045 -1.21618 0.399345 1.516453 -1.497739 -0.894283 -1.016508 -4.239133 -0.552353 3.336811 0.604184 -0.364719
artery -2.199199 3.646575 0.699229 0.566609 -0.921757 -0.32763 -1.829238 2.380217 -2.085381 -1.461869 0.516706 -1.869259 4.443479 2.991609 0.666815 2.959957 2.702546 -0.269079 -1.782259 -2.329586 0.685656 0.559331 0.870172 -1.264541 1.13638 -2.346009 -0.623585 -3.758076 -1.14009 3.671829 2.744109 0.104292 0.803217 0.832979 -1.976679 0.51092 -2.542853 -0.312202 -0.977535 -2.912797 -1.720903 3.451999 -2.184334 0.355398 3.075115 -2.250335 -0.728296 0.159425 0.400465 -1.391168
segment -3.065365 1.433304 0.66466 -1.253687 -0.501659 -1.190278 -1.761054 -0.788587 -1.846546 -1.899119 -1.187312 -0.521552 2.315432 1.168898 1.668341 0.148231 -3.035227 0.50571 -0.034584 0.153713 1.231597 -0.296934 0.111419 -1.841133 0.87531 0.225593 1.010888 -0.606708 -1.106284 -0.40702 -0.874557 2.489061 -0.770087 0.089148 0.25658 -0.818775 -2.000009 -1.638861 1.479184 -0.281013 0.708163 0.024519 0.42605 -2.748699 -0.213222 -2.031966 1.245712 -0.21462 0.168386 -1.492728
anemia 1.038527 3.286908 1.63683 -1.280455 -0.488023 0.964768 -0.671794 1.434852 -2.404919 2.369105 2.807561 -1.990042 0.843048 0.629055 -0.311381 -1.685846 4.329109 -1.299753 -3.533556 -0.216826 0.289772 1.4939 0.540408 -0.143103 2.734515 -0.480137 -0.063319 -3.519205 -1.093436 1.848396 -1.395265 -0.758285 0.240742 0.579517 1.286556 -1.5818 -0.244163 0.116814 0.924077 -0.440407 3.203023 2.076177 -0.688932 1.885304 1.504495 0.327837 -2.051969 2.462458 -3.107121 0.426578
lineage 3.440748 -0.790094 0.881125 -0.621632 -1.925414 -0.76948 0.167349 2.667772 1.239638 -4.206555 0.766277 -0.313539 -0.073931 0.483316 0.049673 -3.14008 2.688536 1.057653 -0.858536 -1.769866 1.455962 1.102375 -1.17592 -2.06064 0.432127 -2.024297 0.510074 0.133676 1.011117 -1.830029 2.571394 -0.123214 -0.405311 -0.479577 -1.01629 1.280247 -2.109945 -2.0625 1.772851 -1.616695 1.540131 -1.645181 -0.443547 0.932912 1.164922 1.364306 -2.79749 -0.859149 -0.05888 -1.231068
droplet 3.267506 2.297906 0.8385 -1.662094 -1.286151 0.757336 -1.236758 -0.243457 -4.53571 4.032051 0.731983 -2.31606 1.112432 -0.956668 -0.213561 0.496355 -0.11883 2.922759 2.044824 -0.778232 1.749809 -0.373914 -1.212486 -1.225233 0.982171 -1.31299 0.264818 -2.415921 -0.055829 0.512732 3.196691 0.409134 3.845622 0.513669 -0.801683 1.273664 -1.587017 -0.809606 0.12846 2.754786 -1.61565 2.303813 -1.454773 0.601064 -1.349826 -1.745013 -1.134782 -0.518954 0.51447 -0.081751
protestant 1.719614 -1.858441 0.845346 -0.172587 -1.685 1.174721 0.421014 0.546616 3.474512 -0.517854 1.213467 -1.974944 0.237049 2.380597 -2.28805 -1.279974 2.795704 1.07599 2.387794 0.891858 -1.191125 -1.373471 0.07762 -0.847596 0.912071 0.634895 -1.302965 1.289293 0.068088 0.992826 0.425488 -1.967921 -0.982974 0.079196 -2.030646 0.845591 -0.112817 0.866968 -0.035947 -1.571411 1.186952 -0.208488 -1.625416 0.294113 0.794515 1.222199 -0.409737 -0.876667 0.717749 -0.417046
laser 1.660304 -0.862873 0.348573 -0.172904 2.317413 2.532297 -1.155278 -2.684313 -4.204636 0.854764 -0.449394 -0.088485 0.870691 -0.394555 -0.56724 -0.876398 -0.669448 1.246758 0.764086 -2.276774 0.876116 -0.631904 -0.487734 -1.380571 -1.599782 -1.155992 1.907083 -5.019238 2.583858 2.157806 0.387103 3.134651 2.305513 -3.373061 0.844663 -1.742796 -1.226493 -2.165954 -2.175343 1.300863 -0.456844 5.13172 0.477568 1.077302 -3.273877 -0.272737 0.932346 -0.131075 -2.132292 -3.088504
tree 3.040854 0.226181 2.284625 1.320135 -3.324607 0.626724 0.381357 1.967919 1.506062 1.912834 -2.417364 -0.738156 1.494543 -0.362255 -1.360505 0.77207 -0.489096 -0.357059 -1.908779 -1.771906 2.652903 1.302473 -2.79007 -0.180892 0.342015 -0.584494 2.775794 1.412944 -1.553016 -3.464702 3.946727 1.367046 -2.635563 2.602031 -0.326539 0.954701 -1.56307 0.804849 -0.488164 -1.458211 -0.147816 1.760816 -2.596184 1.269868 -3.973195 -3.407713 -0.117926 -0.107385 -0.200248 -1.979594
electron -0.60274 -0.205309 1.023641 -1.449125 0.621356 2.413942 1.694855 -1.333708 -4.834862 0.760476 -0.809354 -3.685116 1.369307 -2.765505 0.192103 -2.590235 -0.073139 4.076448 2.260264 -2.687647 3.639038 0.886781 -0.101502 -3.472146 -1.971548 -4.988713 -2.969399 -2.193799 2.531901 3.915076 5.047782 2.532913 4.046524 -2.098108 1.597624 0.670761 0.706439 1.09677 2.508825 -0.281589 0.382737 3.319527 -0.317212 0.843054 -1.417563 -1.346406 0.082572 -2.767778 -4.995345 1.050971
fighting 0.202259 -2.069446 0.325641 -1.024657 2.725537 -0.100954 -1.26781 -1.129108 0.401049 1.186458 0.750333 0.708155 -1.965667 0.306993 -1.073747 1.76997 1.079113 -2.315339 0.088278 -1.187329 0.899727 -2.76061 2.007306 -0.872695 -0.889789 1.84336 1.494676 1.039826 -0.705624 0.351323 -0.058592 -1.771825 0.234104 0.308135 -0.523046 1.007817 -1.544782 4.564357 0.307739 -0.315984 -1.493327 2.206435 1.839409 -2.880508 0.716323 0.677428 -0.97757 1.854092 -0.529937 -0.005797
alcoholism -0.105291 -0.848556 0.17283 -1.129278 -0.654601 0.059205 1.024221 0.554862 -0.114544 2.582949 3.848245 -0.118008 0.5629 2.115674 1.530612 -0.516566 1.252718 -1.966375 -3.003665 -0.767277 -0.58569 -1.939833 -1.902423 -0.37978 2.132998 1.073595 -0.526472 -1.462464 -0.698284 0.847811 -0.095898 -2.028413 -1.103613 1.4943 -0.798451 -4.586859 1.098197 -1.865688 0.487454 -2.252438 0.068448 1.395629 0.226461 0.453948 0.25027 0.13377 0.09394 1.085779 -0.540227 2.962913
greek 1.561419 1.234695 0.908438 -1.409595 -0.503946 0.138686 0.228258 1.383006 2.756907 -0.432517 1.288139 0.055748 -1.719586 -0.67334 -0.493773 -0.376763 2.563737 1.334393 0.732271 -0.547476 -1.394079 1.344134 0.006368 0.123836 0.651155 0.304744 -0.715376 0.842348 1.117459 1.51862 -0.272258 -1.43291 -0.219828 -0.293795 -0.171359 1.853583 -1.883889 0.664244 0.864035 -0.281674 -0.346507 1.151166 -0.396707 -1.870804 0.316951 0.843589 -2.185944 0.826392 2.713155 -0.688963
good -2.616262 2.531512 4.592605 -1.282562 -0.317774 -0.075831 -3.517123 2.779128 4.845085 1.18172 -2.713646 -2.935448 2.912959 -1.443048 -3.176904 2.148535 0.931472 -1.806553 3.434995 1.248638 0.762366 3.499157 -0.419107 3.154322 -2.474133 0.640378 -4.750748 1.331116 0.739884 0.377992 -1.762742 0.045096 2.058518 1.454295 -0.763841 -0.454827 0.599429 0.59927 1.696767 -2.394248 -1.583132 0.285497 3.106825 2.122998 -1.504863 2.486542 -0.128076 -0.101874 -1.074216 1.333612
variability 1.357573 0.352192 -0.788055 -1.97156 -1.277625 0.347637 0.133524 2.812253 -1.834037 2.156881 2.368242 -0.319386 -0.043476 0.067009 1.24311 -0.372098 0.466936 2.760829 1.201065 -2.361233 2.343691 2.1032 0.171551 0.484672 -0.037783 -0.994304 1.636131 -0.328433 -1.016047 -1.448818 1.464401 1.092539 1.052363 0.422262 0.656686 0.723489 0.532646 -2.564471 4.218986 2.172089 3.465096 1.864341 1.508883 1.42902 -0.965962 0.24076 -0.111386 1.363254 -1.072109 -0.364272
propellant 1.349766 -0.278022 1.579895 0.870359 0.993875 0.851412 -3.635233 -1.818453 -3.056708 3.270293 -1.279691 -2.941165 1.309918 -0.922784 -0.720536 -0.489691 4.21226 1.615992 1.080444 1.974773 3.480588 -0.736195 0.874121 1.561988 -0.936092 -2.001322 -1.292095 -2.808355 -1.2403 1.996729 2.382945 -0.835188 3.650934 -4.761792 -0.127541 -0.886832 -0.587053 0.800167 -1.356074 2.335496 -0.876934 1.58747 2.147058 0.396603 0.202939 0.399815 2.795263 0.178362 -0.462263 -0.852822
husband -0.682899 -0.505476 0.731444 0.706288 -0.547204 -0.251902 0.080807 -0.77267 1.084213 -0.347357 0.932302 -0.019716 0.456301 1.22522 -1.824346 -2.570919 0.144646 0.858072 -2.676166 -0.186649 -1.040198 0.178531 -3.949633 -1.130721 -0.283216 0.595641 0.669314 -1.654407 1.440172 -1.185545 -0.769472 -3.368464 0.082079 3.752754 -0.966241 -2.471385 3.088861 -0.313254 0.258483 -1.29087 -2.291485 -5.405122 -4.689108 1.962431 1.506223 0.651127 0.410262 -0.908434 1.02592 2.702572
