60 50
hora -0.562261 2.473539 -0.656826 0.385701 -0.178515 -0.152154 -0.121432 0.756106 1.989179 0.765245 0.488025 3.414015 -1.216391 0.504601 -1.137475 1.033422 2.017098 0.092358 -2.141493 -0.209224 -1.180085 0.382257 -3.269665 -2.280199 0.013594 -0.607398 -3.072082 -2.672373 0.284752 0.053477 1.173234 0.406895 0.07999 2.456168 3.656903 0.392388 0.536881 1.456309 2.008183 -0.381812 -0.814913 1.245244 3.423181 1.93575 0.414474 0.437996 -0.432156 0.550777 -0.18427 0.411437
alcoholismo -2.708565 1.25651 1.745188 -0.480002 0.117223 0.440796 -2.559906 1.828863 -0.595087 0.091823 1.261732 -2.079811 0.251617 -0.348385 -0.453596 -1.472338 0.045247 1.969471 0.792698 -0.793273 -0.484117 -1.54882 -0.31522 -1.671922 0.155364 -3.243743 0.506654 -1.187587 0.932307 0.772945 -0.117961 -1.623247 -1.721639 1.094988 -3.72336 2.423701 0.239172 2.062839 -0.503983 -3.617104 -0.701777 0.217857 1.17733 0.630208 -2.174073 1.172357 0.973706 1.459718 0.251015 -2.522132
día -0.721092 0.810944 -0.300952 0.20165 -0.584723 -1.458484 0.065747 0.004722 2.077324 0.78551 1.573992 2.309133 -0.423256 0.362507 -0.98635 0.960151 2.175632 -1.578577 1.010279 1.427996 -0.572541 -0.226642 -2.618609 -2.369776 -0.775275 0.339239 -1.935688 -0.742759 -0.934171 -2.784875 1.251159 0.112197 0.066886 0.955749 1.476887 0.079912 1.29586 0.025525 1.603304 -1.630359 -1.074847 1.920981 2.433792 0.996236 1.439898 0.583907 -0.560378 2.686485 -0.856353 1.029308
experto -0.825414 0.164284 -0.860849 -0.172499 -0.275166 -0.194725 1.641277 -0.007654 -1.337806 -0.46461 -0.361816 -0.329073 -2.0078 -0.607382 0.60686 0.389757 -2.013042 1.035845 1.002363 -0.415179 -0.244543 1.137694 1.140246 0.459866 -1.337092 0.239429 0.497413 -1.152222 -0.425077 2.147635 0.224444 1.058051 -0.365427 1.296631 -0.930413 0.793781 -0.976122 2.109025 -1.186206 -1.247091 0.211523 -2.545729 -2.249567 -0.128533 0.338091 -1.497229 -1.323598 0.640986 -2.630419 0.607301
balón 2.460455 0.945149 0.643525 -0.548262 1.688647 -0.259873 1.225841 -1.145517 -0.830758 -1.637428 2.164344 -0.305446 1.565134 4.02929 0.264956 4.575362 -3.180496 3.326971 -0.615191 -0.302557 0.674508 3.710435 -2.675336 -0.399569 1.947478 -2.848205 -0.477328 -3.092548 -3.490305 -0.927105 0.555349 1.334474 -2.696606 -1.112588 1.091069 -5.294738 -1.37022 -0.750459 -1.758928 0.866036 0.28989 -0.892528 1.239181 1.404597 -1.998833 -3.070374 3.704165 -2.579084 0.971738 -0.014551
láser 0.457591 -1.039724 -3.386874 -1.073066 -0.365295 1.545912 2.374168 -1.709104 -1.366846 -1.779348 2.481877 2.298013 -0.720654 1.870387 -0.092381 3.02461 -3.783139 1.823148 -1.146507 0.334721 0.888142 1.384089 -1.556032 -1.696022 1.85044 -4.20692 -1.442422 2.361417 0.575984 3.110512 -0.861245 3.538914 1.271393 1.053459 3.098201 -0.298524 0.688319 3.473166 1.2011 0.491532 1.351228 -1.862421 -1.057752 -0.904625 -2.119742 0.302714 0.259034 -3.712974 1.719469 1.496793
agresión 0.783066 0.449892 0.082016 -0.357027 -1.664961 0.579449 -0.15436 -2.195598 -0.509072 0.040525 1.60585 -3.015749 -4.537586 -0.727658 0.957874 1.833133 1.176139 -1.596498 1.730162 -0.514259 1.288262 -0.66857 -2.108999 -1.87582 0.106617 -1.318108 1.498341 -0.595907 0.859849 -1.584729 1.176406 0.387737 -3.479944 0.49871 -0.370498 -0.29167 -1.031029 1.905503 -0.954434 -0.77132 0.850898 -0.318378 0.43588 -0.384511 -0.814855 1.823684 0.033702 0.820379 -0.597747 -1.160944
reflejo 1.122695 -0.503278 0.034748 -0.026583 0.999921 1.38637 -1.114665 -0.799088 -0.609744 1.314421 1.848974 0.759988 0.511331 2.410166 -0.577853 0.824084 -0.706044 1.314814 -1.199697 -0.105727 -0.24514 -1.832728 -0.541505 1.019529 -1.430279 -0.557128 0.958881 0.440733 0.006788 1.586637 -1.13134 1.967663 -2.215699 -0.091189 -0.603886 0.564213 1.095392 1.23198 1.38794 1.603483 2.796808 -1.258288 0.685757 -0.993581 -1.44199 -0.12186 1.126585 0.487697 0.24014 -2.919761
griego -0.006238 -2.508949 -1.448159 -2.124112 -0.906692 -0.724077 -1.011456 -2.197649 -0.609102 2.958192 -0.964526 1.498394 1.588359 0.757554 2.417154 -2.882619 1.930575 0.069948 -0.128646 1.154818 0.266292 -0.291973 1.486609 2.632975 -2.096149 0.563771 -0.341582 1.389836 1.53379 0.704915 -1.064179 0.471772 -4.543268 -1.693456 -1.560663 -1.448196 1.312412 -1.097867 -0.661675 -0.754237 -1.296568 -1.480214 -0.77292 0.153819 -0.53381 -1.05392 -1.124571 -1.054592 0.403325 2.387395
lámpara 0.647602 -1.799217 -2.406901 0.793979 2.597681 0.497109 -1.530031 -0.598204 -2.423311 -2.437646 2.751244 4.031499 0.418658 1.676197 -1.347521 -0.755153 -1.039219 0.470062 -0.756735 1.477573 -1.829395 0.964202 -1.580331 -3.279144 -1.614084 -1.47404 -0.736755 1.519019 0.301298 0.745622 -2.051224 -0.068789 0.828554 -0.522895 2.137492 0.534883 0.925619 1.523532 2.316461 0.436276 1.68836 -0.631086 -0.952574 -2.99118 -1.465983 -0.591057 0.005473 -2.480332 0.805664 0.122449
docena -0.081581 1.102714 -1.210664 -0.816945 0.871392 0.325573 0.053084 -0.669255 -0.608337 0.905324 -0.469742 -0.718179 -1.330078 0.126739 -0.605043 -0.969746 0.69748 1.70189 0.444487 1.760876 0.267182 0.136978 0.732777 -0.128461 0.11078 0.566903 -0.528066 -0.346363 -0.053485 -0.569096 1.042063 -0.094666 1.118408 1.512119 0.929585 0.304922 0.460168 0.072522 -0.13597 0.135831 -1.898745 0.223298 -0.353844 -0.840673 0.556455 -0.476291 -1.905261 -0.843201 -0.986032 1.008557
cactus -1.671822 -0.658475 -1.998011 -0.814443 2.442764 -0.261719 -0.422541 -0.35359 -0.391853 -2.2118 -0.832442 -0.778704 0.57248 1.89931 1.345246 -2.735846 1.384073 1.477076 -0.327557 0.614552 -1.008246 0.94851 -0.151366 2.316066 0.664021 -0.475585 -1.48068 1.815695 1.856831 -1.42918 1.005931 1.841078 -1.898105 -0.83944 0.841245 -0.33342 0.517417 -2.759619 -1.79607 -1.421177 1.757265 -1.42054 -2.018928 0.08952 0.81023 0.035028 -0.439827 -1.62528 -0.863039 -1.823166
abogado -0.939247 1.582773 0.657465 0.152783 -1.520844 0.061689 -1.259917 1.695181 -1.11498 -1.609142 1.000874 1.337329 -1.991631 -3.032125 3.273044 1.561693 -0.790939 -0.599216 2.863014 -0.564063 0.621945 1.876822 -0.148802 0.02127 0.261371 1.026274 0.016242 -2.043296 -0.200557 -0.83485 -1.036212 -1.149554 0.910198 1.74291 -3.456368 1.290455 -1.792634 1.092005 -2.064208 -1.053146 -1.643076 -1.049854 0.865943 -2.888636 -1.46658 -1.062542 2.750019 2.086272 -2.164289 2.016785
inmigrante -3.022322 -0.09712 0.841412 -3.262907 -0.136657 0.021958 0.279117 -0.388587 -1.135284 0.848854 1.76791 -1.616533 1.088588 -1.441063 3.299039 -2.449106 3.463867 -0.117312 -0.045277 1.746342 2.314627 1.305563 2.801725 -2.479306 0.31331 2.307083 3.240653 -1.783174 1.146047 0.167723 2.877403 -4.6791 -0.922974 -0.578311 -1.158652 0.882665 -0.007079 0.048517 0.847429 1.97315 -0.277363 0.796698 1.005379 -1.602272 1.168144 0.589374 2.210679 -0.07179 -0.569682 -1.358751
guerrero 2.963988 -0.710229 -1.657629 -3.764341 1.160371 -1.058606 -2.692267 -0.464242 -0.481327 1.537562 0.598743 0.402663 0.026951 -0.237801 0.629758 -0.075919 -1.109562 -1.217027 1.776344 1.207225 2.897064 -0.23918 -0.108848 2.439379 -1.540237 -1.511559 1.88746 1.182869 -1.501187 -0.53989 1.202537 -0.028513 -1.497427 -0.286429 0.293387 -3.580645 1.5186 -0.351304 0.990945 -1.063269 -1.56692 -1.646577 0.365307 0.488628 -0.168365 1.007562 -2.586029 -0.049729 1.005193 0.076314
tipo 0.625556 -8.5e-05 -1.982752 -0.722694 -0.590334 1.05965 0.41886 -0.237441 0.180346 1.271549 0.799342 -1.200946 -1.720267 1.016509 -0.198753 -1.904718 -1.311919 1.705084 -1.283511 -0.85539 -1.154913 0.688617 -1.457968 -1.40496 -0.154405 0.229631 -0.100418 -0.446963 0.222551 1.914641 -0.046444 1.065625 -0.974177 -0.663635 1.088472 2.010108 0.019148 0.063864 1.369957 -0.301763 1.67092 -0.091308 -3.460403 0.402191 -0.652206 1.424152 -0.2266 -2.620086 0.175152 -1.288002
característica 0.591952 -0.53575 -0.761616 -1.212499 0.763117 1.366152 1.239191 -0.45687 0.067809 0.897054 -0.096715 -0.455074 -1.19189 1.663114 0.003317 -0.989155 -1.452088 1.974501 -1.359604 -1.549165 -1.263398 0.112097 -0.681167 1.132438 -0.042644 0.341084 1.137715 -0.738516 0.569351 2.833509 -0.014679 1.801346 -0.36101 -2.076332 0.142926 2.080324 0.954524 -0.669969 2.015492 0.606795 1.885633 -0.047002 -2.524671 0.824891 0.046662 1.173895 -0.481684 -2.239913 -0.060053 -2.445876
propulsor 1.593576 -0.921651 0.402105 -1.104488 -0.535824 3.068492 1.068267 1.929379 0.765387 -1.100532 0.084117 -0.894723 0.935066 0.289312 -0.545197 1.920341 -1.2058 -1.19959 0.362851 0.391951 -0.598267 2.846297 -1.53453 -1.376478 -0.840111 -0.779042 -1.289515 0.444886 0.165838 2.200564 -1.351441 1.060774 0.033731 0.428624 1.704873 1.239827 1.023082 1.406534 2.38213 1.513955 1.325641 -2.918785 -1.004647 -0.056687 0.54241 0.167479 -0.530132 -0.800574 1.726318 -0.095597
jinete 2.610374 0.426266 -1.175712 -1.926837 0.700498 -0.083192 -2.595919 -0.398466 1.772926 0.707676 -0.270387 0.431382 1.756643 0.022588 0.39691 0.549732 -2.787738 0.393417 1.362735 0.654075 0.913517 1.195651 -0.976667 2.495085 -2.793722 -0.668016 0.330568 -0.028038 -0.894213 -1.973529 3.446065 0.224657 -1.214917 0.999728 2.026666 -3.756401 1.870569 0.442652 0.570986 0.918603 -3.501155 -1.198604 0.446237 0.322475 0.072677 1.444594 -0.468629 0.559712 2.34963 -0.439803
revolver 1.251135 2.689871 -1.622132 -1.718033 -1.813099 2.583628 -0.198513 -1.091124 -0.580954 -3.231046 1.403253 -0.437085 0.193693 -1.244524 0.252388 -1.695926 -1.346124 0.462574 0.76946 0.200215 0.652818 2.020001 -3.123604 -1.360481 -2.032167 1.026626 0.10659 -1.296687 0.366331 -1.326335 -0.236866 1.684491 1.028887 1.102549 -0.307263 -0.495532 1.70455 2.863158 -0.384725 0.1095 -2.160255 0.540705 -0.034702 -0.539485 -1.800496 0.068769 -0.549308 -1.758201 2.650867 0.551237
electrón -0.668729 -3.270286 -2.074507 1.092442 -1.475562 -0.273944 -0.982461 2.741131 -0.068645 1.761426 2.386246 -0.461326 -2.931918 2.329178 -0.7942 1.749655 -4.598907 0.511395 -1.409932 -0.664918 0.658356 3.55972 2.629817 -1.281286 2.733121 -2.501986 -1.655839 4.197012 3.845621 0.732572 -0.164833 2.835392 -0.401027 0.742702 5.254776 2.95294 -0.94686 0.191198 1.955122 3.935369 2.049176 -0.24135 0.358101 -0.318763 -2.648779 2.065482 2.738504 -3.106958 2.578391 -1.491111
hegemonía 0.853755 -1.060955 2.621462 -2.115517 -1.659357 0.456544 0.082142 -1.239787 0.443874 -0.116828 0.125933 -1.379581 -0.106253 -1.054311 1.980685 0.22858 2.18266 -2.422362 -0.63771 1.014121 0.671586 -1.10793 1.493603 1.322854 -1.05404 -2.826564 2.25511 2.686824 -1.014377 0.855502 -0.607782 -1.651278 -2.071512 -1.867642 0.245248 -2.63386 -0.674993 1.551511 -0.218152 2.971012 1.052719 0.286642 -0.86893 2.711026 0.017011 -0.500708 0.893822 1.195547 -0.937884 -0.487248
importancia 0.178803 -0.2145 -0.149695 -0.084746 -0.415033 -0.734909 1.007353 1.017816 0.631968 0.346981 -1.224607 0.080442 -0.972049 -0.178267 0.590904 -0.223838 0.853654 -0.21502 -1.550294 -0.430413 -0.462543 -1.674729 2.600896 0.601322 -0.34921 0.102279 1.090195 -0.70862 -0.979954 1.310226 0.840158 -0.718329 -1.386918 -0.97517 -0.860802 -0.420395 0.138606 0.197984 2.149535 1.664646 1.585094 0.619171 -3.872535 -0.241687 -0.691622 -0.004785 -0.0052 1.641825 -0.214163 -1.695247
ignorancia -0.864407 -0.648163 -0.198684 -0.859893 0.571101 0.227901 -2.195769 -0.135864 -1.628886 1.062034 -1.143719 -0.078399 -0.917455 -0.15589 -0.881722 0.521874 0.726829 -1.106891 -0.369218 0.589383 0.93445 -1.245008 -0.059588 1.145942 -1.797105 -1.293935 2.826545 -2.514561 0.429782 0.921994 0.599974 1.714494 -3.263964 1.536223 -2.517407 0.873314 -0.544638 1.92172 0.234903 -0.813398 2.112412 -1.376228 0.052852 -0.596997 -2.08369 -0.591858 0.498587 1.554419 0.436147 -0.753677
marido -0.421286 0.645125 0.21393 -1.377637 1.848579 0.672041 -4.514498 -0.450663 1.326388 0.017085 1.15632 0.902997 -0.256976 -2.294953 0.603328 -1.595545 -0.289742 -1.501178 2.518975 0.049926 0.642963 -0.903588 -0.520556 -0.443749 0.163631 -0.06038 -0.387251 0.251242 0.836466 -1.119559 -1.004585 -1.07394 1.547626 4.051627 -2.700757 -0.639842 0.722497 1.491698 -1.504066 -2.598442 0.34989 0.338765 0.649905 -1.230467 -1.396362 1.365662 3.055258 2.136272 0.11932 0.040814
pato 0.035788 2.616301 -0.746481 -0.544324 3.242698 0.702544 -1.860976 -0.82034 0.19106 1.071723 -0.517082 -3.215725 2.511852 0.740294 2.438445 -1.084208 0.217447 2.018545 2.027126 -0.985446 0.574973 0.089862 -0.634049 -1.91042 -2.718126 -0.377369 -1.9808 -1.165676 1.456974 -1.687323 0.874678 1.806145 0.422738 -1.489846 0.887821 -1.391807 1.889984 -0.375361 0.103749 0.275443 2.126495 -2.238427 -0.409973 -0.428168 0.813959 -0.753368 -0.762593 -2.868323 -0.40708 -1.564151
segmento -0.115083 2.554902 -0.416346 -0.738132 0.071537 1.498262 -0.675113 -2.064193 2.118001 -0.766166 -2.484179 1.074126 -0.772409 1.688159 -1.977082 -0.122718 -0.33934 1.274824 0.657736 -1.906501 -2.189898 -0.138651 -0.088365 -1.382479 0.458742 0.619555 -0.028307 1.4918 0.880836 0.980864 -1.708111 1.009912 1.096176 0.358456 1.60514 1.455795 -0.767818 -0.884633 1.618915 2.055438 -1.003884 0.062378 0.002001 1.760759 -2.076239 -0.096015 0.370065 -3.630383 -0.246031 -1.640425
iluminación 1.835028 -1.086644 -0.661277 1.517813 0.859656 1.153276 1.529616 -2.546142 -1.615432 -2.753022 1.810239 4.391541 0.856775 2.724292 -2.17913 -0.458356 -1.885842 1.118918 -3.80838 1.107342 -2.016623 0.75526 -1.593481 -0.290667 0.085197 -0.839624 0.829271 -1.15725 0.112319 1.59815 -1.601509 0.838261 0.659089 -0.870407 2.747613 2.743132 0.431427 0.188557 1.493821 0.390819 4.240895 -1.104077 0.222674 -2.983305 0.354873 0.496235 -0.296547 0.399114 0.587175 -2.015708
total -3.358848 2.318669 1.893685 -1.968161 1.101622 2.930852 3.54612 0.599074 -1.999505 3.048131 -1.749243 -0.15226 0.823667 0.011211 -2.721436 0.86606 1.158426 -0.603379 -0.734459 2.070572 0.377758 1.037324 0.706083 -0.83579 0.634654 -1.004243 0.982315 -0.31908 -0.322969 -1.640324 3.118098 1.553287 2.368744 -1.302366 0.555852 -0.809603 -1.051912 1.382149 -0.765507 -0.530363 -3.260333 1.222431 -1.983818 -1.223556 -1.353361 0.411963 -0.228572 -1.226445 1.517309 -1.597478
desigualdad -1.860917 0.888733 1.636511 0.690386 -0.786267 1.893991 -0.251727 0.836457 -2.601857 2.116926 -0.052711 -1.107452 -1.54032 -2.500638 -0.885401 -1.813142 1.926554 -1.524803 -1.988759 -0.120829 -0.872471 0.670169 0.848861 0.557795 0.921561 -2.508216 5.077442 -1.390527 -0.612979 1.065898 0.802536 0.597023 -2.147229 0.277719 -1.467802 2.556959 -1.900787 1.033996 -1.223057 1.962033 1.177297 -1.319256 -1.804759 1.738004 -3.589726 0.921965 1.544953 0.031451 0.534741 -4.452836
antepasado 0.728631 -1.199253 -1.021965 -3.14035 2.159637 0.396083 -1.945684 -0.120351 0.186973 1.65062 0.997492 0.636144 0.843231 -0.488178 1.00558 -1.1323 1.225072 -1.023444 2.242188 1.638881 2.231988 0.275706 0.776409 2.200058 -0.59698 0.316729 2.757556 0.353671 0.855647 0.914441 0.542753 0.244867 -0.931637 -0.643939 -1.864762 -1.159569 1.531902 -1.340148 2.296031 -0.752773 0.894833 -1.182812 -1.857054 -0.89229 1.805235 0.941821 0.384364 -1.087863 -0.730693 -0.327898
respecto -1.415718 -1.908465 1.243885 -0.563246 -1.440689 2.237929 1.37149 0.255976 0.100159 0.757091 -1.001778 -0.034625 -2.19875 0.01978 -0.317858 0.309305 -0.201283 -0.643682 -0.544203 -0.848477 -1.843536 -0.086654 -0.828595 0.348876 0.474796 -0.202522 1.6732 -1.986674 0.512506 1.717184 -0.055339 2.220195 -0.93044 0.466119 -1.167826 1.177052 0.631029 0.610895 0.659164 1.539256 1.49555 0.135927 -0.289692 2.166246 -1.328205 0.414219 1.406202 -0.125941 1.292388 -1.399964
disidente 0.049329 -1.090871 1.334997 -0.484871 -2.025139 0.77909 -1.24527 0.582461 -1.064308 0.597253 1.725287 -1.605891 -2.213269 -1.010094 1.840345 0.517398 -0.113709 -1.882865 0.660666 0.784653 1.612381 0.564498 -0.25328 -0.32262 0.238776 0.231714 0.950488 0.95423 -0.416038 -2.534192 0.543541 -0.939409 -2.307015 1.151313 -1.685524 2.755326 -1.958417 1.352286 -0.070335 0.446735 -0.625503 -1.206527 1.877413 -0.612015 0.668326 -2.281779 -0.921417 0.27894 -0.80786 0.534826
nobleza 2.379473 -2.480674 2.348107 -2.558861 -0.854892 2.921676 -3.779689 2.731694 -0.138809 1.279926 0.704041 0.990213 -0.138106 -2.599407 3.975272 -1.230793 1.472172 -2.255451 1.191484 0.098173 0.800699 -0.041726 -1.762071 2.455454 -1.017655 -0.048128 4.309537 2.422083 -1.019184 -0.067818 1.418056 -1.095792 -0.750065 1.020213 -1.144782 -2.42192 -1.348831 -0.629323 -0.97958 -0.738217 2.24544 0.923711 -1.215877 -1.715541 0.214553 0.636057 0.840309 0.406549 2.018074 -0.506439
reforma 0.364725 -0.84033 4.084446 2.169548 -5.317902 0.635494 1.592293 -0.505421 -1.391909 -0.686932 -0.640648 0.797832 -0.744968 -1.947605 1.903654 1.17052 1.559271 -2.575912 -1.70354 -0.62053 0.593002 -0.134724 -2.178398 -0.17805 -1.377211 0.184339 2.9359 0.509838 0.128505 -1.158657 -1.121924 -1.877693 0.529419 1.276448 -2.652426 2.74773 -2.30255 0.552427 0.822904 2.461414 2.415781 0.391763 -2.115055 0.788954 1.163984 -1.456401 -1.748802 2.254747 1.171347 -0.899522
hormona -0.899026 2.567537 0.89607 0.446781 -0.064045 -0.851927 0.056677 3.436451 2.970416 3.271889 1.055749 2.121204 0.58256 2.508522 1.078797 -1.96486 -3.831394 2.893462 -2.422169 0.07205 -0.592232 -0.837057 0.540791 -2.446675 -0.08028 -0.007812 0.259457 3.36587 3.635893 -0.692827 -1.302364 0.879689 -3.488665 -2.502098 -1.578359 1.559492 -2.334981 2.786474 0.19048 1.465343 0.661496 0.663922 -1.816206 0.783145 -3.288517 3.243763 0.227809 -0.164371 -0.316277 -4.392019
arteria 0.547362 2.518421 -2.23007 -0.137269 -0.469245 2.930212 1.598691 -0.32726 3.049496 -0.483532 1.649455 2.21495 0.471969 3.387848 -0.980112 -0.6303 -0.674199 2.051175 0.632405 -2.051684 1.633323 -0.082013 1.29948 -0.981937 -0.713042 -1.65685 -2.827048 2.9203 2.799127 1.099757 -0.353798 -2.552993 -4.581419 0.075693 -1.560855 1.267062 -1.743569 -1.928344 1.292129 1.50263 -0.420486 0.75101 -0.173734 -0.970653 -2.810824 -2.868809 2.976224 -0.673677 3.485666 -1.868722
pata 1.290143 1.561185 -0.152582 -0.506582 3.15221 2.958588 -2.358046 -1.004521 0.51432 0.880848 -0.638985 -0.284115 -0.094633 4.033831 1.051138 0.090833 -1.806116 2.486689 0.963422 -1.908714 0.254072 1.907178 -2.846185 0.010094 -3.695884 -0.476335 -1.681237 1.300476 1.906908 -2.359395 -0.08145 2.280304 -1.327435 0.476706 -0.274421 -0.980131 1.437458 -3.525819 3.7e-05 2.167347 0.227523 -3.639202 -0.25241 1.621703 0.648674 -0.495 -0.395707 -4.68008 0.451276 -1.551595
activo 1.255681 0.789954 0.341781 1.178858 0.591273 -0.112959 4.402618 2.340973 -1.873476 0.16048 -0.558247 -0.514577 -0.307705 -0.270792 0.944315 -0.520108 1.565467 -0.999054 -0.797328 -2.763255 0.988286 1.497002 0.095937 -2.827619 -0.516469 2.599033 0.942454 1.285066 -0.169361 0.338839 -0.791537 0.198682 1.544854 0.676591 0.580081 1.541419 -1.785149 -0.287208 -3.320737 0.967029 1.583696 1.674109 -2.732658 3.653254 -4.023793 -0.492773 1.416896 1.040906 0.225363 -1.799261
ayudante 1.583858 1.367584 -1.142799 -0.018118 -0.025582 -1.385557 -0.931052 1.312618 0.234181 -1.601132 0.434367 1.013237 -0.1402 -0.424795 1.596517 -0.319751 -3.095179 0.416879 -1.166005 0.935775 1.138467 2.168536 -0.042816 0.52039 0.533948 0.647114 -1.981383 -0.501043 -1.405486 0.052067 -0.821759 0.527492 2.14313 3.524444 -2.114697 -2.384623 0.331148 0.674857 -1.08616 -1.344546 -0.984122 -1.701016 1.007344 -2.002166 0.915545 0.536018 -0.099806 1.092736 -2.208554 -0.314284
protestante 0.407845 -2.060807 1.896124 -1.757589 -2.451178 0.485285 -0.913 0.229045 -0.777174 1.043694 0.047284 -0.262413 -1.017687 -1.428884 0.328898 0.259353 1.551134 -3.116211 1.231515 0.936174 0.157654 -0.209487 -0.505831 -0.753603 0.173059 0.30232 3.096237 0.656249 0.027203 -0.869988 1.260016 -1.59143 -2.822375 0.894304 -2.899249 -0.238653 -0.157956 0.846015 -0.015643 0.046738 0.787574 0.46451 1.325547 -1.375837 0.915647 -1.206675 -1.185559 0.230463 2.609672 0.590054
indígena -0.82409 -1.9839 -2.83232 -2.122994 0.799037 -0.424502 0.947828 0.885332 -0.519548 1.141395 1.294386 0.088613 -0.201432 -1.439184 2.427263 0.728574 2.377445 -0.568279 -0.905025 -0.021195 3.686273 -2.054664 0.446926 -1.078477 -0.225131 0.903633 3.336148 -1.345428 0.677377 -1.332991 3.858183 -1.452125 -2.64983 -1.439069 -3.187009 -2.698171 0.304327 -1.192736 0.814356 0.615338 -1.517914 -1.405893 -0.885134 0.269539 3.496723 1.446597 -1.029233 1.128395 0.76933 -0.361704
precisión 0.479446 -0.664362 -2.153639 -1.534363 -1.130578 1.829647 2.32102 -0.021511 -1.591258 0.28868 0.786643 1.123412 -1.077412 1.347528 -0.168446 2.130075 -1.823057 1.136925 -2.347017 -0.677852 -1.826337 2.013143 -0.717115 0.825519 0.007757 -0.727466 -1.404846 -1.903375 0.218069 3.573293 -0.026185 3.061472 -1.004842 1.077936 0.195946 -1.308954 1.61704 2.371751 2.279634 1.757735 1.525762 0.511668 -1.262167 2.125358 -1.501748 0.698333 -0.526585 -1.609306 1.302353 0.159941
probabilidad -1.615071 0.718055 -0.201405 -1.117951 -1.068571 -0.350396 0.906981 -1.052088 -1.387337 3.154511 1.752794 0.150146 -2.499652 0.550216 -0.767661 -0.150641 -2.218591 -0.417311 0.401407 -0.429655 -0.796631 1.966562 1.371337 -0.350663 1.747557 -1.663937 -1.209771 -0.575694 3.171947 2.080958 1.550866 2.765693 -0.972046 0.217946 -0.914364 1.51855 1.327314 1.564155 1.118439 -0.887705 1.767146 1.380381 -1.02462 3.678665 -3.890403 0.095759 0.984555 -0.462533 -0.546988 -2.216321
anemia -0.836147 0.357364 1.100048 -0.728912 1.186651 0.487858 -1.213191 1.490391 -0.28726 2.731455 2.957215 0.033747 0.98882 2.294575 -0.487522 -1.092539 -2.95097 1.362372 -2.062018 -0.597082 0.02655 -1.700465 -2.163366 -2.60229 -1.060142 -1.359595 -0.487433 1.943172 4.778097 1.112168 1.479848 0.181151 -2.007317 -1.783554 -2.682771 1.448169 -1.361707 2.001776 0.738361 -1.03818 -1.4897 1.480275 -2.774627 1.034878 -3.445317 0.071969 -0.77178 1.338238 0.620265 -2.665967
traje 2.455193 1.364903 -1.658985 -1.665633 1.936007 0.088262 -1.611326 -1.411014 -1.14969 -0.874162 0.877688 0.043873 -1.710942 1.357099 -1.679519 -0.932245 -2.801756 1.035018 1.098987 -0.900355 -1.444898 -2.365187 -3.205227 -1.630801 -4.629194 0.692676 2.406452 0.809773 -1.233801 -0.036892 -0.508895 1.733419 1.653078 -0.182012 2.318647 -2.410756 0.673497 -0.262043 1.128879 -1.988557 -0.058222 -0.074863 1.366539 -2.985609 -0.059934 3.097634 0.064842 -1.470783 -0.363985 0.329149
chispa 1.192729 -0.421628 -1.794393 -0.964598 -0.072668 1.075662 -1.050302 0.978287 -0.560527 -1.842953 1.590176 -0.024861 -0.553752 1.168877 -1.69345 0.294587 -0.179157 -0.494948 0.065048 1.539817 1.798347 -0.748686 -1.713565 -1.36723 -1.073221 -1.743441 -0.590506 0.135058 0.307921 -0.153501 -1.814025 0.810359 -0.295787 -0.070068 1.412836 0.612971 1.930533 3.373855 2.134719 -0.293625 -0.322821 -1.200175 0.851519 -0.880982 -0.184067 0.578746 -0.127959 -1.851187 1.12393 -0.509848
sangre 1.919093 1.342265 -1.810059 -1.663522 2.852639 1.209741 -2.122154 2.050878 0.162489 2.302657 1.817475 1.555168 0.045123 1.021233 -0.258138 -1.150555 -2.086403 1.067561 1.785842 2.18628 2.52004 -2.154398 -1.963671 -2.202537 -1.350109 -1.946762 -0.113431 1.37295 3.200365 -0.956836 0.273171 1.104144 -3.519201 0.186414 -2.238868 -0.711831 -0.5931 1.916374 0.641635 -1.054762 0.492424 0.019724 0.563196 -1.78928 -1.620613 -0.684761 0.719856 -0.710168 2.241153 -1.664266
estancia -0.297089 -0.390924 0.615835 0.390282 0.998387 -0.998217 -0.971167 0.27859 1.005275 -0.506956 0.85239 0.2138 -0.831363 0.241529 0.832578 -0.124931 1.443998 0.479513 -0.397497 0.998059 0.068501 0.607626 0.127973 0.085462 0.830754 0.178002 -0.76674 -0.772879 -1.251982 0.071919 -0.243956 -2.209786 1.847225 2.194557 -0.471166 -1.798213 0.934078 -1.059323 0.206208 -1.249223 0.52353 0.887729 -0.082953 -2.385167 2.246911 -1.089813 -0.03582 1.750113 0.552707 -0.881638
cañón -0.535095 0.171072 -2.476344 -2.325679 -0.020945 2.237818 2.02139 -2.025255 0.172836 -2.778497 0.406534 -0.998962 0.113628 -0.442382 0.412692 -0.006492 -1.794196 -0.607503 -1.404154 -0.411581 0.399788 3.520992 -3.190425 0.451397 -0.903862 -1.594797 -2.567002 -0.968645 2.390478 -0.320379 -0.91385 0.672844 0.268594 -0.194379 3.526752 -1.901638 2.715067 1.63677 0.032856 3.01517 -4.203388 -1.690706 -3.071638 -0.556941 -0.025007 2.487374 -2.691247 -0.560603 6.919133 -0.029084
adolescente -2.059992 3.105716 0.596621 -2.168935 -0.525551 -0.604168 -3.432916 -0.925231 0.531776 0.947095 2.290436 -1.992242 0.534735 0.077079 -1.764171 -1.623428 -1.171153 2.78989 2.347444 -1.068787 1.118681 -2.026697 -0.200251 -0.324567 -0.373021 -0.136295 1.84006 -1.829935 -0.485525 0.428257 -1.136743 -0.488944 0.632711 2.993007 -0.879833 1.67259 -0.500775 1.25713 -0.013669 -2.071621 -0.233034 0.307585 2.228423 -0.823439 -0.803838 1.710218 -0.522026 0.365667 -1.413165 -1.448689
cultivo -2.1421 1.031707 -2.183614 0.526739 -1.074884 -0.942749 3.327119 3.424061 -0.986736 -1.73304 -1.766499 0.192039 2.347279 0.093196 3.628788 -0.582997 1.772356 3.503916 -3.049594 3.041931 -0.687629 -1.338127 0.556368 -1.249288 3.092771 -2.183311 -0.575571 0.81249 1.23684 -2.385089 3.133419 -2.424315 -1.485828 -2.048942 -1.024022 -0.502193 3.272979 -1.655099 1.957387 -0.198306 3.327517 -1.712409 -5.842107 1.435127 1.740302 0.202053 1.180393 -1.468931 0.419276 -4.505783
precio 0.149104 -0.579432 0.007424 -0.278965 0.736136 -0.424721 1.443994 3.076312 -2.68082 -0.882508 -2.149555 1.063081 -0.864884 -1.773117 2.128059 -1.652196 2.526302 0.22879 -2.00169 0.674643 -2.109684 0.971776 -2.081749 -5.36051 -0.689164 0.461661 1.387781 -0.567255 -0.192341 -0.582806 -0.101892 -0.599821 1.983073 0.882392 1.058902 2.003812 1.469734 1.08566 -1.867808 1.746525 1.677285 3.607085 -2.010146 4.859292 -5.620995 -0.806443 2.824405 -1.143642 1.879158 -1.776785
ciclismo 1.764916 1.798658 1.088981 -1.561073 1.419337 -3.154732 -0.043051 1.588817 2.077738 -1.225431 -0.892442 -2.087998 3.388735 -0.499253 -3.601878 1.935602 -3.618363 0.515265 1.286406 -2.245017 -1.71379 1.479527 0.758896 0.332523 -3.391558 -1.647472 -1.982009 -2.156424 -0.240904 0.513571 2.428179 -4.51982 -2.058486 0.484619 2.567661 -0.616786 -3.185121 -1.67895 0.382717 -0.147259 0.551695 0.204066 0.434927 1.923351 3.799816 -1.599886 2.60806 1.590293 -1.428365 0.860714
proclamación 0.692247 -3.223873 0.831865 1.119824 -3.012663 0.838365 0.012732 -1.419072 1.179901 0.254444 0.60063 -0.982251 0.345539 -1.681376 0.802656 0.655891 1.420069 -4.698912 0.551068 1.789855 -0.412012 -0.940904 -2.667696 0.876409 -0.046252 -0.590495 0.783025 1.97275 0.512541 -2.025572 0.383491 -0.555764 -1.355704 -0.075497 -0.975553 0.624268 -0.797092 0.581464 1.079651 0.848129 0.727422 2.163076 0.202096 -0.05085 1.812121 0.85882 0.841905 3.241954 -0.260909 2.1229
instinto 0.194248 1.58245 -0.091812 -1.029398 1.735626 -0.746879 -2.183715 0.933521 0.902568 1.214502 -0.220835 -1.591754 -1.213939 0.327399 -0.422751 1.466634 -1.0434 0.345997 1.284057 -0.418888 1.7924 0.257407 -1.283193 1.980541 -0.851631 -0.037609 2.007416 -1.832219 0.638776 0.648789 -0.259422 3.128917 -2.129012 0.047933 -1.909506 -0.437872 1.52646 1.286733 -0.408454 0.086325 3.086401 -2.107199 0.799089 -0.443562 -1.359837 2.491668 0.198138 0.779482 -1.34003 -3.05794
viga 1.654604 -0.885624 -1.038816 0.727204 1.126291 0.984702 -2.144741 -2.683411 -2.322268 -2.740946 1.583186 0.79429 -1.659104 1.744232 -2.175529 0.773264 -1.01937 -0.662572 -2.781354 -0.797544 -1.967733 3.46604 -1.393086 1.599178 -0.959288 -0.403553 -1.865968 0.358507 2.603539 -1.561606 -2.361026 -2.325483 -0.073709 0.780018 0.898552 1.877223 -0.173586 -1.776731 2.235594 0.859217 -0.125969 -1.69558 -1.909921 0.168091 -0.470126 -0.183166 -1.429899 -2.109207 3.680623 -0.913042
árbol 0.647991 0.272081 -4.630224 -1.135983 2.64593 0.352549 -0.570507 -1.291182 -0.72069 -1.495419 -1.042822 0.429841 1.846779 2.868603 -0.621944 -1.992412 2.125738 0.325864 0.823191 2.023285 -0.369022 1.085039 0.812474 1.976599 -0.873774 -2.810736 -2.381177 0.522863 1.472189 -2.292514 0.396335 -0.242932 -1.445137 0.285273 -0.541685 1.981714 -0.173772 -4.058317 0.148989 -2.154887 3.036479 -0.765646 -2.409024 2.400731 2.126906 0.487124 0.743306 -2.354736 -0.464984 -3.224545
previsión -0.930477 0.505655 1.017395 0.318627 -1.536154 -0.878059 3.90488 -1.018774 -8.7e-05 -0.339566 -1.05977 0.257178 -1.176165 0.322982 0.451398 -0.306145 0.373245 -0.802813 -0.686517 -0.705592 0.532192 -0.050094 -0.109834 -1.614204 -0.082318 -0.057301 -1.196631 -0.81905 0.742319 0.389679 0.150077 -0.022306 0.183121 1.577139 -1.13374 1.42733 -0.110295 1.228034 -0.016852 0.169081 0.04945 1.250724 -0.617279 1.611133 -1.749076 1.005569 -0.228631 1.828925 -0.431686 -2.242686
comité -0.559062 0.947479 0.865642 3.298473 -2.287701 0.683805 3.998544 1.142304 0.217162 0.279191 -1.360464 -0.68872 -2.742406 -0.704702 1.142294 0.627024 -1.692358 -1.563007 0.844117 -0.456142 0.942733 1.409271 -1.697363 0.192112 -1.44213 1.556389 0.975153 0.972887 -2.736449 -1.674898 -0.05178 -0.425337 -0.380236 0.394703 -1.037746 2.012866 -5.062248 0.401819 -0.394791 -0.619418 0.111579 -2.397301 0.120356 -0.136644 1.456105 -1.00371 0.023868 1.633452 -2.934723 0.615987
